<?xml version="1.0"?>
<opencv_storage>
<cascade>
  <stageType>BOOST</stageType>
  <featureType>HAAR</featureType>
  <height>24</height>
  <width>24</width>
  <stageParams>
    <boostType>GAB</boostType>
    <minHitRate>9.9500000476837158e-01</minHitRate>
    <maxFalseAlarm>5.0000000000000000e-01</maxFalseAlarm>
    <weightTrimRate>9.4999999999999996e-01</weightTrimRate>
    <maxDepth>1</maxDepth>
    <maxWeakCount>100</maxWeakCount></stageParams>
  <featureParams>
    <maxCatCount>0</maxCatCount>
    <featSize>1</featSize>
    <mode>BASIC</mode></featureParams>
  <stageNum>10</stageNum>
  <stages>
    <!-- stage 0 -->
    <_>
      <maxWeakCount>3</maxWeakCount>
      <stageThreshold>-7.8868556022644043e-01</stageThreshold>
      <weakClassifiers>
        <_>
          <internalNodes>
            0 -1 15 2.9052205383777618e-02</internalNodes>
          <leafValues>
            -9.0147781372070312e-01 7.9159051179885864e-01</leafValues></_>
        <_>
          <internalNodes>
            0 -1 1 7.2075918316841125e-02</internalNodes>
          <leafValues>
            -4.1198015213012695e-01 9.1309612989425659e-01</leafValues></_>
        <_>
          <internalNodes>
            0 -1 10 -1.8781851977109909e-02</internalNodes>
          <leafValues>
            5.2477240562438965e-01 -9.2287915945053101e-01</leafValues></_></weakClassifiers></_>
    <!-- stage 1 -->
    <_>
      <maxWeakCount>4</maxWeakCount>
      <stageThreshold>-2.7352398633956909e-01</stageThreshold>
      <weakClassifiers>
        <_>
          <internalNodes>
            0 -1 18 -6.4894608221948147e-03</internalNodes>
          <leafValues>
            7.7229601144790649e-01 -7.0403587818145752e-01</leafValues></_>
        <_>
          <internalNodes>
            0 -1 31 -6.7175952717661858e-03</internalNodes>
          <leafValues>
            5.6774967908859253e-01 -7.4436032772064209e-01</leafValues></_>
        <_>
          <internalNodes>
            0 -1 42 -1.3618864119052887e-02</internalNodes>
          <leafValues>
            7.8131586313247681e-01 -5.1718431711196899e-01</leafValues></_>
        <_>
          <internalNodes>
            0 -1 27 -1.0252473875880241e-02</internalNodes>
          <leafValues>
            -9.5280128717422485e-01 3.9355632662773132e-01</leafValues></_></weakClassifiers></_>
    <!-- stage 2 -->
    <_>
      <maxWeakCount>5</maxWeakCount>
      <stageThreshold>-8.2636821269989014e-01</stageThreshold>
      <weakClassifiers>
        <_>
          <internalNodes>
            0 -1 29 5.4855337366461754e-03</internalNodes>
          <leafValues>
            -8.4337347745895386e-01 6.6780823469161987e-01</leafValues></_>
        <_>
          <internalNodes>
            0 -1 9 2.3666791617870331e-02</internalNodes>
          <leafValues>
            -4.5091378688812256e-01 8.1338739395141602e-01</leafValues></_>
        <_>
          <internalNodes>
            0 -1 6 2.4631213396787643e-02</internalNodes>
          <leafValues>
            -4.4393971562385559e-01 7.3270726203918457e-01</leafValues></_>
        <_>
          <internalNodes>
            0 -1 16 1.3960563228465617e-04</internalNodes>
          <leafValues>
            4.3852400779724121e-01 -8.0719596147537231e-01</leafValues></_>
        <_>
          <internalNodes>
            0 -1 39 -3.8324245251715183e-03</internalNodes>
          <leafValues>
            5.4240775108337402e-01 -6.1356145143508911e-01</leafValues></_></weakClassifiers></_>
    <!-- stage 3 -->
    <_>
      <maxWeakCount>6</maxWeakCount>
      <stageThreshold>-1.2398403882980347e+00</stageThreshold>
      <weakClassifiers>
        <_>
          <internalNodes>
            0 -1 32 4.3569770059548318e-04</internalNodes>
          <leafValues>
            5.7827478647232056e-01 -9.0322577953338623e-01</leafValues></_>
        <_>
          <internalNodes>
            0 -1 4 3.5006847232580185e-02</internalNodes>
          <leafValues>
            -4.2990821599960327e-01 6.8504673242568970e-01</leafValues></_>
        <_>
          <internalNodes>
            0 -1 34 -2.9077351791784167e-04</internalNodes>
          <leafValues>
            -6.8521595001220703e-01 4.8194369673728943e-01</leafValues></_>
        <_>
          <internalNodes>
            0 -1 13 -1.0384201072156429e-02</internalNodes>
          <leafValues>
            4.7782620787620544e-01 -5.8978986740112305e-01</leafValues></_>
        <_>
          <internalNodes>
            0 -1 0 4.3407343327999115e-02</internalNodes>
          <leafValues>
            -4.2449358105659485e-01 5.9915971755981445e-01</leafValues></_>
        <_>
          <internalNodes>
            0 -1 40 1.2443654122762382e-04</internalNodes>
          <leafValues>
            3.1129252910614014e-01 -8.3916246891021729e-01</leafValues></_></weakClassifiers></_>
    <!-- stage 4 -->
    <_>
      <maxWeakCount>6</maxWeakCount>
      <stageThreshold>-5.8652675151824951e-01</stageThreshold>
      <weakClassifiers>
        <_>
          <internalNodes>
            0 -1 36 1.6839138697832823e-04</internalNodes>
          <leafValues>
            5.8428806066513062e-01 -7.6978415250778198e-01</leafValues></_>
        <_>
          <internalNodes>
            0 -1 37 -1.1543360596988350e-04</internalNodes>
          <leafValues>
            -8.9876621961593628e-01 3.6373168230056763e-01</leafValues></_>
        <_>
          <internalNodes>
            0 -1 48 -5.1827907562255859e-02</internalNodes>
          <leafValues>
            6.9060081243515015e-01 -4.6299901604652405e-01</leafValues></_>
        <_>
          <internalNodes>
            0 -1 22 -7.0048319175839424e-03</internalNodes>
          <leafValues>
            4.3744635581970215e-01 -7.5161051750183105e-01</leafValues></_>
        <_>
          <internalNodes>
            0 -1 8 2.0547889173030853e-02</internalNodes>
          <leafValues>
            -3.8831409811973572e-01 7.7987098693847656e-01</leafValues></_>
        <_>
          <internalNodes>
            0 -1 14 -3.8798369467258453e-02</internalNodes>
          <leafValues>
            -9.5883828401565552e-01 2.6884955167770386e-01</leafValues></_></weakClassifiers></_>
    <!-- stage 5 -->
    <_>
      <maxWeakCount>5</maxWeakCount>
      <stageThreshold>-9.0718448162078857e-01</stageThreshold>
      <weakClassifiers>
        <_>
          <internalNodes>
            0 -1 23 2.5832016021013260e-02</internalNodes>
          <leafValues>
            5.9349590539932251e-01 -8.5185188055038452e-01</leafValues></_>
        <_>
          <internalNodes>
            0 -1 25 1.2116901052650064e-04</internalNodes>
          <leafValues>
            3.3205920457839966e-01 -9.2877590656280518e-01</leafValues></_>
        <_>
          <internalNodes>
            0 -1 2 3.0075363814830780e-02</internalNodes>
          <leafValues>
            -5.9077042341232300e-01 4.8109754920005798e-01</leafValues></_>
        <_>
          <internalNodes>
            0 -1 11 -2.8214231133460999e-02</internalNodes>
          <leafValues>
            8.1565487384796143e-01 -3.3858269453048706e-01</leafValues></_>
        <_>
          <internalNodes>
            0 -1 38 1.4184147585183382e-04</internalNodes>
          <leafValues>
            3.5744863748550415e-01 -7.4105477333068848e-01</leafValues></_></weakClassifiers></_>
    <!-- stage 6 -->
    <_>
      <maxWeakCount>5</maxWeakCount>
      <stageThreshold>-6.9368499517440796e-01</stageThreshold>
      <weakClassifiers>
        <_>
          <internalNodes>
            0 -1 19 6.0777794569730759e-03</internalNodes>
          <leafValues>
            -7.3793101310729980e-01 5.9008264541625977e-01</leafValues></_>
        <_>
          <internalNodes>
            0 -1 5 2.0696207880973816e-02</internalNodes>
          <leafValues>
            -5.7758992910385132e-01 4.6467867493629456e-01</leafValues></_>
        <_>
          <internalNodes>
            0 -1 41 -9.6449912234675139e-05</internalNodes>
          <leafValues>
            -8.5163658857345581e-01 3.6654862761497498e-01</leafValues></_>
        <_>
          <internalNodes>
            0 -1 7 -1.4416351914405823e-02</internalNodes>
          <leafValues>
            6.6677087545394897e-01 -4.9234238266944885e-01</leafValues></_>
        <_>
          <internalNodes>
            0 -1 49 1.0031376034021378e-02</internalNodes>
          <leafValues>
            -3.6453580856323242e-01 7.4762970209121704e-01</leafValues></_></weakClassifiers></_>
    <!-- stage 7 -->
    <_>
      <maxWeakCount>6</maxWeakCount>
      <stageThreshold>-7.0462757349014282e-01</stageThreshold>
      <weakClassifiers>
        <_>
          <internalNodes>
            0 -1 30 1.0641773405950516e-04</internalNodes>
          <leafValues>
            5.6299841403961182e-01 -8.3739835023880005e-01</leafValues></_>
        <_>
          <internalNodes>
            0 -1 30 -9.9670374765992165e-05</internalNodes>
          <leafValues>
            -8.4847450256347656e-01 3.8060694932937622e-01</leafValues></_>
        <_>
          <internalNodes>
            0 -1 3 4.4044408947229385e-02</internalNodes>
          <leafValues>
            -4.0401440858840942e-01 6.7493110895156860e-01</leafValues></_>
        <_>
          <internalNodes>
            0 -1 28 2.1767540602013469e-04</internalNodes>
          <leafValues>
            -8.4432923793792725e-01 3.1324023008346558e-01</leafValues></_>
        <_>
          <internalNodes>
            0 -1 20 -1.8489067442715168e-03</internalNodes>
          <leafValues>
            -8.0809706449508667e-01 2.7346721291542053e-01</leafValues></_>
        <_>
          <internalNodes>
            0 -1 45 3.1130034476518631e-03</internalNodes>
          <leafValues>
            -4.9854516983032227e-01 4.7971978783607483e-01</leafValues></_></weakClassifiers></_>
    <!-- stage 8 -->
    <_>
      <maxWeakCount>5</maxWeakCount>
      <stageThreshold>-6.3781625032424927e-01</stageThreshold>
      <weakClassifiers>
        <_>
          <internalNodes>
            0 -1 24 -3.1024347990751266e-02</internalNodes>
          <leafValues>
            -9.1803276538848877e-01 5.7643312215805054e-01</leafValues></_>
        <_>
          <internalNodes>
            0 -1 30 -5.5200442147906870e-05</internalNodes>
          <leafValues>
            -7.6114320755004883e-01 3.6258807778358459e-01</leafValues></_>
        <_>
          <internalNodes>
            0 -1 43 5.2633550018072128e-02</internalNodes>
          <leafValues>
            -3.9726921916007996e-01 6.5500450134277344e-01</leafValues></_>
        <_>
          <internalNodes>
            0 -1 44 -1.5351305715739727e-02</internalNodes>
          <leafValues>
            8.4967792034149170e-01 -3.1954440474510193e-01</leafValues></_>
        <_>
          <internalNodes>
            0 -1 26 1.3402826152741909e-04</internalNodes>
          <leafValues>
            3.5452350974082947e-01 -8.6002379655838013e-01</leafValues></_></weakClassifiers></_>
    <!-- stage 9 -->
    <_>
      <maxWeakCount>7</maxWeakCount>
      <stageThreshold>-8.0076706409454346e-01</stageThreshold>
      <weakClassifiers>
        <_>
          <internalNodes>
            0 -1 33 1.2752632028423250e-04</internalNodes>
          <leafValues>
            6.0876899957656860e-01 -7.0700639486312866e-01</leafValues></_>
        <_>
          <internalNodes>
            0 -1 17 1.7480451613664627e-02</internalNodes>
          <leafValues>
            -4.1844934225082397e-01 6.0989308357238770e-01</leafValues></_>
        <_>
          <internalNodes>
            0 -1 21 -1.7408911138772964e-02</internalNodes>
          <leafValues>
            3.3418896794319153e-01 -7.8636384010314941e-01</leafValues></_>
        <_>
          <internalNodes>
            0 -1 12 1.0381166357547045e-03</internalNodes>
          <leafValues>
            2.8435355424880981e-01 -8.3464729785919189e-01</leafValues></_>
        <_>
          <internalNodes>
            0 -1 46 -7.5613297522068024e-03</internalNodes>
          <leafValues>
            7.1006804704666138e-01 -4.0110784769058228e-01</leafValues></_>
        <_>
          <internalNodes>
            0 -1 35 -1.6099921776913106e-04</internalNodes>
          <leafValues>
            -5.5448037385940552e-01 3.9740568399429321e-01</leafValues></_>
        <_>
          <internalNodes>
            0 -1 47 -1.6225723549723625e-02</internalNodes>
          <leafValues>
            6.3605213165283203e-01 -3.6660808324813843e-01</leafValues></_></weakClassifiers></_></stages>
  <features>
    <_>
      <rects>
        <_>
          0 3 9 16 -1.</_>
        <_>
          3 3 3 16 3.</_></rects>
      <tilted>0</tilted></_>
    <_>
      <rects>
        <_>
          0 4 12 16 -1.</_>
        <_>
          4 4 4 16 3.</_></rects>
      <tilted>0</tilted></_>
    <_>
      <rects>
        <_>
          0 5 9 15 -1.</_>
        <_>
          3 5 3 15 3.</_></rects>
      <tilted>0</tilted></_>
    <_>
      <rects>
        <_>
          0 10 6 12 -1.</_>
        <_>
          3 10 3 12 2.</_></rects>
      <tilted>0</tilted></_>
    <_>
      <rects>
        <_>
          0 20 24 2 -1.</_>
        <_>
          8 20 8 2 3.</_></rects>
      <tilted>0</tilted></_>
    <_>
      <rects>
        <_>
          0 20 24 3 -1.</_>
        <_>
          8 20 8 3 3.</_></rects>
      <tilted>0</tilted></_>
    <_>
      <rects>
        <_>
          1 3 9 12 -1.</_>
        <_>
          4 3 3 12 3.</_></rects>
      <tilted>0</tilted></_>
    <_>
      <rects>
        <_>
          2 2 8 6 -1.</_>
        <_>
          2 2 4 3 2.</_>
        <_>
          6 5 4 3 2.</_></rects>
      <tilted>0</tilted></_>
    <_>
      <rects>
        <_>
          3 17 8 6 -1.</_>
        <_>
          3 17 4 3 2.</_>
        <_>
          7 20 4 3 2.</_></rects>
      <tilted>0</tilted></_>
    <_>
      <rects>
        <_>
          3 17 12 6 -1.</_>
        <_>
          3 17 6 3 2.</_>
        <_>
          9 20 6 3 2.</_></rects>
      <tilted>0</tilted></_>
    <_>
      <rects>
        <_>
          4 11 13 8 -1.</_>
        <_>
          4 15 13 4 2.</_></rects>
      <tilted>0</tilted></_>
    <_>
      <rects>
        <_>
          6 20 11 4 -1.</_>
        <_>
          6 22 11 2 2.</_></rects>
      <tilted>0</tilted></_>
    <_>
      <rects>
        <_>
          7 13 9 6 -1.</_>
        <_>
          10 13 3 6 3.</_></rects>
      <tilted>0</tilted></_>
    <_>
      <rects>
        <_>
          8 4 5 6 -1.</_>
        <_>
          8 6 5 2 3.</_></rects>
      <tilted>0</tilted></_>
    <_>
      <rects>
        <_>
          8 5 8 14 -1.</_>
        <_>
          8 12 8 7 2.</_></rects>
      <tilted>0</tilted></_>
    <_>
      <rects>
        <_>
          8 6 8 12 -1.</_>
        <_>
          8 10 8 4 3.</_></rects>
      <tilted>0</tilted></_>
    <_>
      <rects>
        <_>
          8 18 4 1 -1.</_>
        <_>
          10 18 2 1 2.</_></rects>
      <tilted>0</tilted></_>
    <_>
      <rects>
        <_>
          9 1 12 6 -1.</_>
        <_>
          9 1 6 3 2.</_>
        <_>
          15 4 6 3 2.</_></rects>
      <tilted>0</tilted></_>
    <_>
      <rects>
        <_>
          9 4 6 6 -1.</_>
        <_>
          9 6 6 2 3.</_></rects>
      <tilted>0</tilted></_>
    <_>
      <rects>
        <_>
          9 6 6 9 -1.</_>
        <_>
          9 9 6 3 3.</_></rects>
      <tilted>0</tilted></_>
    <_>
      <rects>
        <_>
          9 11 7 6 -1.</_>
        <_>
          9 13 7 2 3.</_></rects>
      <tilted>0</tilted></_>
    <_>
      <rects>
        <_>
          9 12 12 6 -1.</_>
        <_>
          9 15 12 3 2.</_></rects>
      <tilted>0</tilted></_>
    <_>
      <rects>
        <_>
          9 14 7 6 -1.</_>
        <_>
          9 16 7 2 3.</_></rects>
      <tilted>0</tilted></_>
    <_>
      <rects>
        <_>
          10 3 5 16 -1.</_>
        <_>
          10 11 5 8 2.</_></rects>
      <tilted>0</tilted></_>
    <_>
      <rects>
        <_>
          10 4 4 18 -1.</_>
        <_>
          10 13 4 9 2.</_></rects>
      <tilted>0</tilted></_>
    <_>
      <rects>
        <_>
          10 6 2 1 -1.</_>
        <_>
          11 6 1 1 2.</_></rects>
      <tilted>0</tilted></_>
    <_>
      <rects>
        <_>
          10 6 4 1 -1.</_>
        <_>
          12 6 2 1 2.</_></rects>
      <tilted>0</tilted></_>
    <_>
      <rects>
        <_>
          10 7 8 10 -1.</_>
        <_>
          14 7 4 10 2.</_></rects>
      <tilted>0</tilted></_>
    <_>
      <rects>
        <_>
          10 8 6 10 -1.</_>
        <_>
          13 8 3 10 2.</_></rects>
      <tilted>0</tilted></_>
    <_>
      <rects>
        <_>
          11 5 3 8 -1.</_>
        <_>
          11 9 3 4 2.</_></rects>
      <tilted>0</tilted></_>
    <_>
      <rects>
        <_>
          11 6 2 1 -1.</_>
        <_>
          12 6 1 1 2.</_></rects>
      <tilted>0</tilted></_>
    <_>
      <rects>
        <_>
          11 13 3 9 -1.</_>
        <_>
          11 16 3 3 3.</_></rects>
      <tilted>0</tilted></_>
    <_>
      <rects>
        <_>
          11 16 3 3 -1.</_>
        <_>
          11 17 3 1 3.</_></rects>
      <tilted>0</tilted></_>
    <_>
      <rects>
        <_>
          11 17 1 2 -1.</_>
        <_>
          11 18 1 1 2.</_></rects>
      <tilted>0</tilted></_>
    <_>
      <rects>
        <_>
          11 17 8 2 -1.</_>
        <_>
          11 17 4 1 2.</_>
        <_>
          15 18 4 1 2.</_></rects>
      <tilted>0</tilted></_>
    <_>
      <rects>
        <_>
          12 5 2 2 -1.</_>
        <_>
          12 6 2 1 2.</_></rects>
      <tilted>0</tilted></_>
    <_>
      <rects>
        <_>
          12 17 2 1 -1.</_>
        <_>
          13 17 1 1 2.</_></rects>
      <tilted>0</tilted></_>
    <_>
      <rects>
        <_>
          12 17 2 2 -1.</_>
        <_>
          13 17 1 2 2.</_></rects>
      <tilted>0</tilted></_>
    <_>
      <rects>
        <_>
          12 18 2 1 -1.</_>
        <_>
          13 18 1 1 2.</_></rects>
      <tilted>0</tilted></_>
    <_>
      <rects>
        <_>
          13 3 2 6 -1.</_>
        <_>
          13 5 2 2 3.</_></rects>
      <tilted>0</tilted></_>
    <_>
      <rects>
        <_>
          13 5 3 1 -1.</_>
        <_>
          14 5 1 1 3.</_></rects>
      <tilted>0</tilted></_>
    <_>
      <rects>
        <_>
          13 18 2 1 -1.</_>
        <_>
          14 18 1 1 2.</_></rects>
      <tilted>0</tilted></_>
    <_>
      <rects>
        <_>
          14 18 10 3 -1.</_>
        <_>
          19 18 5 3 2.</_></rects>
      <tilted>0</tilted></_>
    <_>
      <rects>
        <_>
          15 5 9 14 -1.</_>
        <_>
          18 5 3 14 3.</_></rects>
      <tilted>0</tilted></_>
    <_>
      <rects>
        <_>
          16 16 6 6 -1.</_>
        <_>
          16 16 3 3 2.</_>
        <_>
          19 19 3 3 2.</_></rects>
      <tilted>0</tilted></_>
    <_>
      <rects>
        <_>
          16 17 6 4 -1.</_>
        <_>
          18 17 2 4 3.</_></rects>
      <tilted>0</tilted></_>
    <_>
      <rects>
        <_>
          17 14 4 6 -1.</_>
        <_>
          17 14 2 3 2.</_>
        <_>
          19 17 2 3 2.</_></rects>
      <tilted>0</tilted></_>
    <_>
      <rects>
        <_>
          18 2 4 14 -1.</_>
        <_>
          20 2 2 14 2.</_></rects>
      <tilted>0</tilted></_>
    <_>
      <rects>
        <_>
          18 4 6 17 -1.</_>
        <_>
          21 4 3 17 2.</_></rects>
      <tilted>0</tilted></_>
    <_>
      <rects>
        <_>
          19 7 3 8 -1.</_>
        <_>
          20 7 1 8 3.</_></rects>
      <tilted>0</tilted></_></features></cascade>
</opencv_storage>
