<?xml version="1.0"?>
<opencv_storage>
<stage6>
  <maxWeakCount>5</maxWeakCount>
  <stageThreshold>-6.9368499517440796e-01</stageThreshold>
  <weakClassifiers>
    <_>
      <internalNodes>
        0 -1 102511 6.0777794569730759e-03</internalNodes>
      <leafValues>
        -7.3793101310729980e-01 5.9008264541625977e-01</leafValues></_>
    <_>
      <internalNodes>
        0 -1 13101 2.0696207880973816e-02</internalNodes>
      <leafValues>
        -5.7758992910385132e-01 4.6467867493629456e-01</leafValues></_>
    <_>
      <internalNodes>
        0 -1 133389 -9.6449912234675139e-05</internalNodes>
      <leafValues>
        -8.5163658857345581e-01 3.6654862761497498e-01</leafValues></_>
    <_>
      <internalNodes>
        0 -1 27972 -1.4416351914405823e-02</internalNodes>
      <leafValues>
        6.6677087545394897e-01 -4.9234238266944885e-01</leafValues></_>
    <_>
      <internalNodes>
        0 -1 156447 1.0031376034021378e-02</internalNodes>
      <leafValues>
        -3.6453580856323242e-01 7.4762970209121704e-01</leafValues></_></weakClassifiers></stage6>
</opencv_storage>
