<?xml version="1.0"?>
<opencv_storage>
<stage7>
  <maxWeakCount>6</maxWeakCount>
  <stageThreshold>-7.0462757349014282e-01</stageThreshold>
  <weakClassifiers>
    <_>
      <internalNodes>
        0 -1 117432 1.0641773405950516e-04</internalNodes>
      <leafValues>
        5.6299841403961182e-01 -8.3739835023880005e-01</leafValues></_>
    <_>
      <internalNodes>
        0 -1 117432 -9.9670374765992165e-05</internalNodes>
      <leafValues>
        -8.4847450256347656e-01 3.8060694932937622e-01</leafValues></_>
    <_>
      <internalNodes>
        0 -1 8940 4.4044408947229385e-02</internalNodes>
      <leafValues>
        -4.0401440858840942e-01 6.7493110895156860e-01</leafValues></_>
    <_>
      <internalNodes>
        0 -1 111157 2.1767540602013469e-04</internalNodes>
      <leafValues>
        -8.4432923793792725e-01 3.1324023008346558e-01</leafValues></_>
    <_>
      <internalNodes>
        0 -1 104639 -1.8489067442715168e-03</internalNodes>
      <leafValues>
        -8.0809706449508667e-01 2.7346721291542053e-01</leafValues></_>
    <_>
      <internalNodes>
        0 -1 147969 3.1130034476518631e-03</internalNodes>
      <leafValues>
        -4.9854516983032227e-01 4.7971978783607483e-01</leafValues></_></weakClassifiers></stage7>
</opencv_storage>
