<?xml version="1.0"?>
<opencv_storage>
<stage5>
  <maxWeakCount>5</maxWeakCount>
  <stageThreshold>-9.0718448162078857e-01</stageThreshold>
  <weakClassifiers>
    <_>
      <internalNodes>
        0 -1 108886 2.5832016021013260e-02</internalNodes>
      <leafValues>
        5.9349590539932251e-01 -8.5185188055038452e-01</leafValues></_>
    <_>
      <internalNodes>
        0 -1 110116 1.2116901052650064e-04</internalNodes>
      <leafValues>
        3.3205920457839966e-01 -9.2877590656280518e-01</leafValues></_>
    <_>
      <internalNodes>
        0 -1 5161 3.0075363814830780e-02</internalNodes>
      <leafValues>
        -5.9077042341232300e-01 4.8109754920005798e-01</leafValues></_>
    <_>
      <internalNodes>
        0 -1 80576 -2.8214231133460999e-02</internalNodes>
      <leafValues>
        8.1565487384796143e-01 -3.3858269453048706e-01</leafValues></_>
    <_>
      <internalNodes>
        0 -1 127608 1.4184147585183382e-04</internalNodes>
      <leafValues>
        3.5744863748550415e-01 -7.4105477333068848e-01</leafValues></_></weakClassifiers></stage5>
</opencv_storage>
