<?xml version="1.0"?>
<opencv_storage>
<stage1>
  <maxWeakCount>5</maxWeakCount>
  <stageThreshold>-1.0797104835510254e+00</stageThreshold>
  <weakClassifiers>
    <_>
      <internalNodes>
        0 -1 52195 1.3364542275667191e-02</internalNodes>
      <leafValues>
        -7.2272729873657227e-01 5.6785714626312256e-01</leafValues></_>
    <_>
      <internalNodes>
        0 -1 20982 1.9619818776845932e-02</internalNodes>
      <leafValues>
        -6.1215311288833618e-01 5.5009114742279053e-01</leafValues></_>
    <_>
      <internalNodes>
        0 -1 75896 -3.0950535088777542e-02</internalNodes>
      <leafValues>
        7.4856358766555786e-01 -4.2827033996582031e-01</leafValues></_>
    <_>
      <internalNodes>
        0 -1 43485 -1.5794439241290092e-02</internalNodes>
      <leafValues>
        3.5037669539451599e-01 -9.5404374599456787e-01</leafValues></_>
    <_>
      <internalNodes>
        0 -1 36577 -5.6577343493700027e-02</internalNodes>
      <leafValues>
        -9.5750087499618530e-01 3.3306357264518738e-01</leafValues></_></weakClassifiers></stage1>
</opencv_storage>
