<?xml version="1.0"?>
<opencv_storage>
<stage2>
  <maxWeakCount>5</maxWeakCount>
  <stageThreshold>-8.2636821269989014e-01</stageThreshold>
  <weakClassifiers>
    <_>
      <internalNodes>
        0 -1 117133 5.4855337366461754e-03</internalNodes>
      <leafValues>
        -8.4337347745895386e-01 6.6780823469161987e-01</leafValues></_>
    <_>
      <internalNodes>
        0 -1 48604 2.3666791617870331e-02</internalNodes>
      <leafValues>
        -4.5091378688812256e-01 8.1338739395141602e-01</leafValues></_>
    <_>
      <internalNodes>
        0 -1 16484 2.4631213396787643e-02</internalNodes>
      <leafValues>
        -4.4393971562385559e-01 7.3270726203918457e-01</leafValues></_>
    <_>
      <internalNodes>
        0 -1 98103 1.3960563228465617e-04</internalNodes>
      <leafValues>
        4.3852400779724121e-01 -8.0719596147537231e-01</leafValues></_>
    <_>
      <internalNodes>
        0 -1 129455 -3.8324245251715183e-03</internalNodes>
      <leafValues>
        5.4240775108337402e-01 -6.1356145143508911e-01</leafValues></_></weakClassifiers></stage2>
</opencv_storage>
