<?xml version="1.0"?>
<opencv_storage>
<stage9>
  <maxWeakCount>5</maxWeakCount>
  <stageThreshold>-5.9696984291076660e-01</stageThreshold>
  <weakClassifiers>
    <_>
      <internalNodes>
        0 -1 21532 5.8746483176946640e-02</internalNodes>
      <leafValues>
        -3.6196318268775940e-01 6.7816090583801270e-01</leafValues></_>
    <_>
      <internalNodes>
        0 -1 59769 -1.3753788545727730e-02</internalNodes>
      <leafValues>
        4.5776936411857605e-01 -5.8331286907196045e-01</leafValues></_>
    <_>
      <internalNodes>
        0 -1 74686 6.9021442905068398e-03</internalNodes>
      <leafValues>
        -3.3942431211471558e-01 7.8488099575042725e-01</leafValues></_>
    <_>
      <internalNodes>
        0 -1 56354 6.6269050876144320e-05</internalNodes>
      <leafValues>
        2.5581395626068115e-01 -9.5618754625320435e-01</leafValues></_>
    <_>
      <internalNodes>
        0 -1 65358 6.0876045608893037e-05</internalNodes>
      <leafValues>
        -5.2051132917404175e-01 4.7352096438407898e-01</leafValues></_></weakClassifiers></stage9>
</opencv_storage>
