<?xml version="1.0"?>
<opencv_storage>
<stage7>
  <maxWeakCount>5</maxWeakCount>
  <stageThreshold>-1.2915488481521606e+00</stageThreshold>
  <weakClassifiers>
    <_>
      <internalNodes>
        0 -1 53952 -8.9029185473918915e-03</internalNodes>
      <leafValues>
        3.8235294818878174e-01 -8.1250000000000000e-01</leafValues></_>
    <_>
      <internalNodes>
        0 -1 59958 -1.5255212201736867e-04</internalNodes>
      <leafValues>
        -7.8650838136672974e-01 3.4481722116470337e-01</leafValues></_>
    <_>
      <internalNodes>
        0 -1 39702 -2.8024956583976746e-02</internalNodes>
      <leafValues>
        8.1640923023223877e-01 -4.1231182217597961e-01</leafValues></_>
    <_>
      <internalNodes>
        0 -1 19807 1.8299976363778114e-02</internalNodes>
      <leafValues>
        3.5156202316284180e-01 -8.7990003824234009e-01</leafValues></_>
    <_>
      <internalNodes>
        0 -1 57570 -1.5842650085687637e-02</internalNodes>
      <leafValues>
        3.1830382347106934e-01 -8.2664358615875244e-01</leafValues></_></weakClassifiers></stage7>
</opencv_storage>
