<?xml version="1.0"?>
<opencv_storage>
<stage3>
  <maxWeakCount>6</maxWeakCount>
  <stageThreshold>-1.2398403882980347e+00</stageThreshold>
  <weakClassifiers>
    <_>
      <internalNodes>
        0 -1 120618 4.3569770059548318e-04</internalNodes>
      <leafValues>
        5.7827478647232056e-01 -9.0322577953338623e-01</leafValues></_>
    <_>
      <internalNodes>
        0 -1 13098 3.5006847232580185e-02</internalNodes>
      <leafValues>
        -4.2990821599960327e-01 6.8504673242568970e-01</leafValues></_>
    <_>
      <internalNodes>
        0 -1 120815 -2.9077351791784167e-04</internalNodes>
      <leafValues>
        -6.8521595001220703e-01 4.8194369673728943e-01</leafValues></_>
    <_>
      <internalNodes>
        0 -1 92786 -1.0384201072156429e-02</internalNodes>
      <leafValues>
        4.7782620787620544e-01 -5.8978986740112305e-01</leafValues></_>
    <_>
      <internalNodes>
        0 -1 3328 4.3407343327999115e-02</internalNodes>
      <leafValues>
        -4.2449358105659485e-01 5.9915971755981445e-01</leafValues></_>
    <_>
      <internalNodes>
        0 -1 130171 1.2443654122762382e-04</internalNodes>
      <leafValues>
        3.1129252910614014e-01 -8.3916246891021729e-01</leafValues></_></weakClassifiers></stage3>
</opencv_storage>
