<?xml version="1.0"?>
<opencv_storage>
<stage8>
  <maxWeakCount>5</maxWeakCount>
  <stageThreshold>-6.3781625032424927e-01</stageThreshold>
  <weakClassifiers>
    <_>
      <internalNodes>
        0 -1 109357 -3.1024347990751266e-02</internalNodes>
      <leafValues>
        -9.1803276538848877e-01 5.7643312215805054e-01</leafValues></_>
    <_>
      <internalNodes>
        0 -1 117432 -5.5200442147906870e-05</internalNodes>
      <leafValues>
        -7.6114320755004883e-01 3.6258807778358459e-01</leafValues></_>
    <_>
      <internalNodes>
        0 -1 141198 5.2633550018072128e-02</internalNodes>
      <leafValues>
        -3.9726921916007996e-01 6.5500450134277344e-01</leafValues></_>
    <_>
      <internalNodes>
        0 -1 147882 -1.5351305715739727e-02</internalNodes>
      <leafValues>
        8.4967792034149170e-01 -3.1954440474510193e-01</leafValues></_>
    <_>
      <internalNodes>
        0 -1 110176 1.3402826152741909e-04</internalNodes>
      <leafValues>
        3.5452350974082947e-01 -8.6002379655838013e-01</leafValues></_></weakClassifiers></stage8>
</opencv_storage>
