<?xml version="1.0"?>
<opencv_storage>
<stage4>
  <maxWeakCount>5</maxWeakCount>
  <stageThreshold>-6.6683465242385864e-01</stageThreshold>
  <weakClassifiers>
    <_>
      <internalNodes>
        0 -1 2878 6.1161354184150696e-02</internalNodes>
      <leafValues>
        -4.8437500000000000e-01 8.1578946113586426e-01</leafValues></_>
    <_>
      <internalNodes>
        0 -1 53066 -1.8084840849041939e-02</internalNodes>
      <leafValues>
        4.2935976386070251e-01 -9.1821181774139404e-01</leafValues></_>
    <_>
      <internalNodes>
        0 -1 65262 1.1548690497875214e-02</internalNodes>
      <leafValues>
        -4.9970528483390808e-01 8.4340065717697144e-01</leafValues></_>
    <_>
      <internalNodes>
        0 -1 58178 -2.6586474850773811e-02</internalNodes>
      <leafValues>
        7.8544789552688599e-01 -5.0669765472412109e-01</leafValues></_>
    <_>
      <internalNodes>
        0 -1 41454 7.6837767846882343e-04</internalNodes>
      <leafValues>
        4.4199067354202271e-01 -1.</leafValues></_></weakClassifiers></stage4>
</opencv_storage>
